solver_type L2R_LR
nr_class 2
label 0 1
nr_feature 132
bias -5.5271915386528265
w 
0.12450583938705313
-0.12469076415135681
0.0
-0.003967729549735694
0.0037433043376604333
0.0
0.06673904834634578
-0.06702188950111586
0.0
0.11054650573371458
-0.11073483868321701
0.0
-0.008915561405955685
0.008161187391478291
0.0
-0.12469076415135681
0.12450583938705313
0.0
-0.10960132467005515
-0.5020842394297512
0.0
0.02626445476694462
-0.028105229515160316
0.0
0.07779245039418818
-0.08594215017862011
0.0
-0.010754937669987951
0.01043410997934741
0.0
-0.031114718408170792
0.025313259819329987
0.0
0.21973461634618796
-0.362687150742765
0.0
-0.20486985682023076
-0.8145753432459946
0.0
-0.008623439029546322
0.00786945299110873
0.0
0.0
0.0
0.0
0.03323283781567721
-0.048006482115423285
0.08569153578847831
-0.001599410433553023
0.05100861833925409
0.004922378000674603
-0.10922495774506544
0.10666872048960144
1.324930266187835
1.56179943380395
0.6843869120002997
0.390819048951797
0.09080506103237171
-0.022401419538648826
-0.19261969424112213
0.03486058868463159
0.0
0.0
-0.030156261098210596
-0.03181364763725818
0.04472968910798938
0.24897033727129245
0.18453809042419156
0.0
-0.13913606497916306
0.4679405490242926
0.36916544476686525
0.09146071294164887
-0.023813062726441372
-0.04359645873940494
-0.11960986890177491
-0.29004328729044876
0.0
0.0
0.0
0.0
0.0
0.0
0.0
0.0
0.0
0.0
0.0
0.0
0.0
0.0
0.0
0.0
0.0
0.0
0.0
0.164910237439179
-0.05156951142300967
-0.024312348960650272
0.029632795688487798
0.20670162592709684
0.35602068316451435
0.0
0.02429865210437412
0.008083872349791884
0.046645557535995245
0.05917737522927406
0.31289945187073703
1.7024471754956916
-0.12130453200972452
-0.04948508317242297
-0.03346147006355739
0.09871391939305055
0.19559992141096136
0.42075671410868715
0.0
0.0
0.0
0.0
0.0
0.0
0.0
0.0
0.0
0.0
0.0
0.0
0.0
0.0
0.0
0.0
-0.06355308065853986