solver_type L2R_LR
nr_class 2
label 1 -1 
nr_feature 139
bias 1
w
-0.10064735418856546
-0.08112856227267068
-0.31863522068651373
-0.1790721950062676
-0.0027037214549683938
-0.31863522068651373
-0.0759870094965982
-0.10578890696463797
-0.31863522068651373
-0.11833242301454239
-0.06344349344669377
-0.31863522068651373
-0.07439440739517338
-0.10738150906606286
-0.31863522068651373
-0.14649780085776
-0.03527811560347603
-0.31863522068651373
-0.08162646440297286
-0.10068031858640614
-0.3181043541583664
-0.1817721499862324
-3.7664750039971923E-6
-0.31863522068651373
-0.1770364878184222
-0.0047394286428142605
-0.31863522068651373
-0.1811752607933761
-6.006556678601507E-4
-0.31863522068651373
-0.1475922721649571
-0.03418364429627921
-0.31863522068651373
-0.1790610741397157
-0.0027148423215206255
-0.31863522068651373
-0.18162915246089908
-1.4676400033725414E-4
-0.31863522068651373
-0.18135106994190597
-4.2484651933033735E-4
-0.31863522068651373
-0.10064757803529244
-0.0811283384259437
-0.31863522068651373
-0.18176758337313342
-8.33308810292841E-6
-0.31863522068651373
-0.14650914052608452
-0.03526677593515169
-0.31863522068651373
-0.18177579138959934
-1.25071637037124E-7
-0.31863522068651373
-0.04463731431856623
-0.13315686066329166
-0.32261696216587715
0.0
0.0
-0.5004111371464649
-8.477890136490859E-4
-0.008901420932841932
-0.08644873293085344
-0.07846920945264295
-0.0019704656790552584
-0.32377351913868757
-3.0011454693075283E-5
3.186875653146378E-5
-5.6463094282658E-4
-0.003298877616782942
-0.007829820648622414
-0.017620039211643856
-0.07342111538734636
-0.3976785106418723
-0.04141009253975963
-0.01578498178110693
-0.04382396097068798
-0.054493149107304864
-0.028948275341436784
-0.01698852658593392
-0.01259060769874834
1.1580500918320382E-4
-0.32789744067168397
-2.0447589956968133E-4
-0.0017376517674276436
-0.006585843476728365
-0.016831480957027932
-0.038565908704366776
-0.06024641040424649
-0.03129484073484143
-0.3449445252034006
-0.021761266354482525
-0.04213253633714309
-0.033525795063464175
-0.026950773431921985
-0.004561183201579295
1.5010579802348227E-4
0.0
-0.37162968855692974
-0.03214281861170807
-0.04270956950715316
-0.03378835189065951
-0.02093751608268464
-0.014989629549171544
1.5536789030887703E-4
0.0
-0.35599861939651845
-0.021982646464851686
-0.04837391142322643
-0.04778714182798367
-0.020128766437087837
-0.017564606182278914
-0.008993416594327874
0.0
-0.335580648217932
0.0
0.0
-0.005868741829959695
-0.016547754790143233
-0.012051007914700217
-0.005290136709703229
-2.2904198354684722E-4
-0.46042445391867715
-8.758646071820769E-4
-0.001931459093851731
-0.0028210210285807558
-0.00135944963225612
-6.021159275730103E-4
-1.9433385745400427E-5
0.0
-0.49280179347132147
0.0
-0.004330463750691755
-0.006909096207874244
-0.01286984115107728
-0.013808665274959678
-0.0064781634170400304
-0.01662465576658232
-0.43939025157869743
0.4995873829427045
